DecisionTreeClassificationModel: uid=DecisionTreeClassifier_1cb90fe261b2, depth=7, numNodes=37, numClasses=2, numFeatures=12  If (feature 0 <= 183181.5)   If (feature 0 <= 182862.5)    If (feature 0 <= 180089.5)     If (feature 4 <= -41.311143)      If (feature 6 <= 2.5)       Predict: 1.0      Else (feature 6 > 2.5)       Predict: 0.0     Else (feature 4 > -41.311143)      If (feature 4 <= -36.994445)       Predict: 1.0      Else (feature 4 > -36.994445)       Predict: 0.0    Else (feature 0 > 180089.5)     Predict: 1.0   Else (feature 0 > 182862.5)    If (feature 5 <= 174.7086085)     If (feature 6 <= 3.5)      Predict: 1.0     Else (feature 6 > 3.5)      If (feature 5 <= 172.37474765)       If (feature 4 <= -44.003206500000005)        If (feature 5 <= 171.2315435)         Predict: 0.0        Else (feature 5 > 171.2315435)         Predict: 1.0       Else (feature 4 > -44.003206500000005)        Predict: 0.0      Else (feature 5 > 172.37474765)       If (feature 5 <= 174.444387)        Predict: 1.0       Else (feature 5 > 174.444387)        If (feature 8 <= 1747282.9175)         Predict: 0.0        Else (feature 8 > 1747282.9175)         Predict: 1.0    Else (feature 5 > 174.7086085)     If (feature 4 <= -40.97246475)      If (feature 4 <= -41.311143)       Predict: 1.0      Else (feature 4 > -41.311143)       Predict: 0.0     Else (feature 4 > -40.97246475)      If (feature 4 <= -36.994445)       If (feature 4 <= -40.861594)        If (feature 6 <= 2.5)         Predict: 0.0        Else (feature 6 > 2.5)         Predict: 1.0       Else (feature 4 > -40.861594)        Predict: 1.0      Else (feature 4 > -36.994445)       Predict: 0.0  Else (feature 0 > 183181.5)   Predict: 0.0
